digraph Tree {
node [shape=box, style="rounded", color="black", fontname=helvetica] ;
edge [fontname=helvetica] ;
0 [label="Feature_110 <= 0.2\nentropy = 0.9\nsamples = 35813\nvalue = [37627, 18978]"] ;
1 [label="Feature_147 <= -0.6\nentropy = 0.8\nsamples = 23045\nvalue = [26361, 9978]"] ;
0 -> 1 [labeldistance=2.5, labelangle=45, headlabel="True"] ;
2 [label="Feature_109 <= -0.6\nentropy = 1.0\nsamples = 5458\nvalue = [5187, 3378]"] ;
1 -> 2 ;
3 [label="Feature_28 <= -2.6\nentropy = 0.8\nsamples = 2565\nvalue = [2978, 1044]"] ;
2 -> 3 ;
4 [label="entropy = 0.0\nsamples = 274\nvalue = [438, 0]"] ;
3 -> 4 ;
5 [label="Feature_21 <= -2.7\nentropy = 0.9\nsamples = 2291\nvalue = [2540, 1044]"] ;
3 -> 5 ;
6 [label="Feature_134 <= -1.6\nentropy = 0.7\nsamples = 148\nvalue = [44, 174]"] ;
5 -> 6 ;
7 [label="entropy = 0.0\nsamples = 119\nvalue = [0, 174]"] ;
6 -> 7 ;
8 [label="entropy = 0.0\nsamples = 29\nvalue = [44, 0]"] ;
6 -> 8 ;
9 [label="Feature_66 <= -2.7\nentropy = 0.8\nsamples = 2143\nvalue = [2496, 870]"] ;
5 -> 9 ;
10 [label="entropy = 0.0\nsamples = 210\nvalue = [321, 0]"] ;
9 -> 10 ;
11 [label="Feature_58 <= -2.1\nentropy = 0.9\nsamples = 1933\nvalue = [2175, 870]"] ;
9 -> 11 ;
12 [label="entropy = 0.0\nsamples = 73\nvalue = [0, 121]"] ;
11 -> 12 ;
13 [label="Feature_159 <= -0.7\nentropy = 0.8\nsamples = 1860\nvalue = [2175, 749]"] ;
11 -> 13 ;
14 [label="Feature_156 <= -1.4\nentropy = 0.5\nsamples = 876\nvalue = [1236, 136]"] ;
13 -> 14 ;
15 [label="Feature_142 <= -2.5\nentropy = 0.8\nsamples = 287\nvalue = [330, 111]"] ;
14 -> 15 ;
16 [label="entropy = 0.0\nsamples = 134\nvalue = [214, 0]"] ;
15 -> 16 ;
17 [label="Feature_154 <= -0.7\nentropy = 1.0\nsamples = 153\nvalue = [116, 111]"] ;
15 -> 17 ;
18 [label="Feature_118 <= -0.8\nentropy = 0.8\nsamples = 101\nvalue = [116, 38]"] ;
17 -> 18 ;
19 [label="entropy = 0.0\nsamples = 56\nvalue = [89, 0]"] ;
18 -> 19 ;
20 [label="entropy = 1.0\nsamples = 45\nvalue = [27, 38]"] ;
18 -> 20 ;
21 [label="entropy = 0.0\nsamples = 52\nvalue = [0, 73]"] ;
17 -> 21 ;
22 [label="Feature_155 <= -0.9\nentropy = 0.2\nsamples = 589\nvalue = [906, 25]"] ;
14 -> 22 ;
23 [label="entropy = 0.0\nsamples = 458\nvalue = [727, 0]"] ;
22 -> 23 ;
24 [label="Feature_82 <= -1.7\nentropy = 0.5\nsamples = 131\nvalue = [179, 25]"] ;
22 -> 24 ;
25 [label="entropy = 0.0\nsamples = 20\nvalue = [0, 25]"] ;
24 -> 25 ;
26 [label="entropy = 0.0\nsamples = 111\nvalue = [179, 0]"] ;
24 -> 26 ;
27 [label="Feature_4 <= -0.8\nentropy = 1.0\nsamples = 984\nvalue = [939, 613]"] ;
13 -> 27 ;
28 [label="Feature_153 <= -2.3\nentropy = 0.5\nsamples = 207\nvalue = [34, 300]"] ;
27 -> 28 ;
29 [label="entropy = 0.0\nsamples = 20\nvalue = [34, 0]"] ;
28 -> 29 ;
30 [label="entropy = 0.0\nsamples = 187\nvalue = [0, 300]"] ;
28 -> 30 ;
31 [label="Feature_164 <= -0.1\nentropy = 0.8\nsamples = 777\nvalue = [905, 313]"] ;
27 -> 31 ;
32 [label="Feature_8 <= -0.2\nentropy = 0.7\nsamples = 731\nvalue = [905, 241]"] ;
31 -> 32 ;
33 [label="Feature_91 <= -0.1\nentropy = 0.9\nsamples = 499\nvalue = [541, 241]"] ;
32 -> 33 ;
34 [label="Feature_101 <= -0.6\nentropy = 1.0\nsamples = 231\nvalue = [172, 213]"] ;
33 -> 34 ;
35 [label="entropy = 0.0\nsamples = 81\nvalue = [0, 141]"] ;
34 -> 35 ;
36 [label="Feature_119 <= -0.4\nentropy = 0.9\nsamples = 150\nvalue = [172, 72]"] ;
34 -> 36 ;
37 [label="entropy = 0.0\nsamples = 108\nvalue = [172, 0]"] ;
36 -> 37 ;
38 [label="entropy = 0.0\nsamples = 42\nvalue = [0, 72]"] ;
36 -> 38 ;
39 [label="Feature_169 <= 0.4\nentropy = 0.4\nsamples = 268\nvalue = [369, 28]"] ;
33 -> 39 ;
40 [label="entropy = 0.0\nsamples = 249\nvalue = [369, 0]"] ;
39 -> 40 ;
41 [label="entropy = 0.0\nsamples = 19\nvalue = [0, 28]"] ;
39 -> 41 ;
42 [label="entropy = 0.0\nsamples = 232\nvalue = [364, 0]"] ;
32 -> 42 ;
43 [label="entropy = 0.0\nsamples = 46\nvalue = [0, 72]"] ;
31 -> 43 ;
44 [label="Feature_11 <= -0.4\nentropy = 1.0\nsamples = 2893\nvalue = [2209, 2334]"] ;
2 -> 44 ;
45 [label="Feature_14 <= -0.2\nentropy = 0.9\nsamples = 1348\nvalue = [768, 1361]"] ;
44 -> 45 ;
46 [label="Feature_99 <= -0.8\nentropy = 1.0\nsamples = 1147\nvalue = [768, 1040]"] ;
45 -> 46 ;
47 [label="entropy = 0.0\nsamples = 105\nvalue = [0, 166]"] ;
46 -> 47 ;
48 [label="Feature_170 <= -1.0\nentropy = 1.0\nsamples = 1042\nvalue = [768, 874]"] ;
46 -> 48 ;
49 [label="entropy = 0.0\nsamples = 102\nvalue = [159, 0]"] ;
48 -> 49 ;
50 [label="Feature_10 <= -0.2\nentropy = 1.0\nsamples = 940\nvalue = [609, 874]"] ;
48 -> 50 ;
51 [label="Feature_127 <= -0.4\nentropy = 1.0\nsamples = 780\nvalue = [609, 606]"] ;
50 -> 51 ;
52 [label="Feature_74 <= -0.3\nentropy = 1.0\nsamples = 649\nvalue = [420, 606]"] ;
51 -> 52 ;
53 [label="Feature_39 <= -0.4\nentropy = 1.0\nsamples = 468\nvalue = [420, 322]"] ;
52 -> 53 ;
54 [label="Feature_163 <= -0.6\nentropy = 0.9\nsamples = 239\nvalue = [120, 262]"] ;
53 -> 54 ;
55 [label="Feature_80 <= -0.6\nentropy = 0.8\nsamples = 74\nvalue = [90, 26]"] ;
54 -> 55 ;
56 [label="entropy = 0.0\nsamples = 19\nvalue = [0, 26]"] ;
55 -> 56 ;
57 [label="entropy = 0.0\nsamples = 55\nvalue = [90, 0]"] ;
55 -> 57 ;
58 [label="Feature_114 <= -0.6\nentropy = 0.5\nsamples = 165\nvalue = [30, 236]"] ;
54 -> 58 ;
59 [label="entropy = 0.0\nsamples = 23\nvalue = [30, 0]"] ;
58 -> 59 ;
60 [label="entropy = 0.0\nsamples = 142\nvalue = [0, 236]"] ;
58 -> 60 ;
61 [label="Feature_113 <= -0.6\nentropy = 0.7\nsamples = 229\nvalue = [300, 60]"] ;
53 -> 61 ;
62 [label="Feature_54 <= -0.5\nentropy = 0.9\nsamples = 56\nvalue = [31, 60]"] ;
61 -> 62 ;
63 [label="entropy = 0.0\nsamples = 37\nvalue = [0, 60]"] ;
62 -> 63 ;
64 [label="entropy = 0.0\nsamples = 19\nvalue = [31, 0]"] ;
62 -> 64 ;
65 [label="entropy = 0.0\nsamples = 173\nvalue = [269, 0]"] ;
61 -> 65 ;
66 [label="entropy = 0.0\nsamples = 181\nvalue = [0, 284]"] ;
52 -> 66 ;
67 [label="entropy = 0.0\nsamples = 131\nvalue = [189, 0]"] ;
51 -> 67 ;
68 [label="entropy = 0.0\nsamples = 160\nvalue = [0, 268]"] ;
50 -> 68 ;
69 [label="entropy = 0.0\nsamples = 201\nvalue = [0, 321]"] ;
45 -> 69 ;
70 [label="Feature_9 <= -0.5\nentropy = 1.0\nsamples = 1545\nvalue = [1441, 973]"] ;
44 -> 70 ;
71 [label="entropy = 0.0\nsamples = 80\nvalue = [0, 130]"] ;
70 -> 71 ;
72 [label="Feature_12 <= -0.3\nentropy = 0.9\nsamples = 1465\nvalue = [1441, 843]"] ;
70 -> 72 ;
73 [label="Feature_133 <= -1.0\nentropy = 0.3\nsamples = 278\nvalue = [416, 22]"] ;
72 -> 73 ;
74 [label="entropy = 0.0\nsamples = 14\nvalue = [0, 22]"] ;
73 -> 74 ;
75 [label="entropy = 0.0\nsamples = 264\nvalue = [416, 0]"] ;
73 -> 75 ;
76 [label="Feature_140 <= -1.0\nentropy = 1.0\nsamples = 1187\nvalue = [1025, 821]"] ;
72 -> 76 ;
77 [label="entropy = 0.0\nsamples = 120\nvalue = [0, 180]"] ;
76 -> 77 ;
78 [label="Feature_141 <= 0.0\nentropy = 1.0\nsamples = 1067\nvalue = [1025, 641]"] ;
76 -> 78 ;
79 [label="Feature_97 <= -0.0\nentropy = 0.9\nsamples = 972\nvalue = [1025, 498]"] ;
78 -> 79 ;
80 [label="Feature_64 <= -0.2\nentropy = 0.8\nsamples = 753\nvalue = [918, 260]"] ;
79 -> 80 ;
81 [label="Feature_177 <= -0.7\nentropy = 0.9\nsamples = 528\nvalue = [560, 260]"] ;
80 -> 81 ;
82 [label="entropy = 0.0\nsamples = 88\nvalue = [0, 141]"] ;
81 -> 82 ;
83 [label="Feature_89 <= -0.2\nentropy = 0.7\nsamples = 440\nvalue = [560, 119]"] ;
81 -> 83 ;
84 [label="Feature_32 <= 0.5\nentropy = 0.3\nsamples = 293\nvalue = [434, 22]"] ;
83 -> 84 ;
85 [label="entropy = 0.0\nsamples = 258\nvalue = [405, 0]"] ;
84 -> 85 ;
86 [label="entropy = 1.0\nsamples = 35\nvalue = [29, 22]"] ;
84 -> 86 ;
87 [label="Feature_172 <= -0.5\nentropy = 1.0\nsamples = 147\nvalue = [126, 97]"] ;
83 -> 87 ;
88 [label="entropy = 0.0\nsamples = 77\nvalue = [113, 0]"] ;
87 -> 88 ;
89 [label="Feature_144 <= -0.5\nentropy = 0.5\nsamples = 70\nvalue = [13, 97]"] ;
87 -> 89 ;
90 [label="entropy = 0.9\nsamples = 27\nvalue = [13, 27]"] ;
89 -> 90 ;
91 [label="entropy = 0.0\nsamples = 43\nvalue = [0, 70]"] ;
89 -> 91 ;
92 [label="entropy = 0.0\nsamples = 225\nvalue = [358, 0]"] ;
80 -> 92 ;
93 [label="Feature_97 <= 0.2\nentropy = 0.9\nsamples = 219\nvalue = [107, 238]"] ;
79 -> 93 ;
94 [label="entropy = 0.0\nsamples = 129\nvalue = [0, 210]"] ;
93 -> 94 ;
95 [label="Feature_123 <= -0.0\nentropy = 0.7\nsamples = 90\nvalue = [107, 28]"] ;
93 -> 95 ;
96 [label="entropy = 0.0\nsamples = 18\nvalue = [0, 28]"] ;
95 -> 96 ;
97 [label="entropy = 0.0\nsamples = 72\nvalue = [107, 0]"] ;
95 -> 97 ;
98 [label="entropy = 0.0\nsamples = 95\nvalue = [0, 143]"] ;
78 -> 98 ;
99 [label="Feature_96 <= -0.1\nentropy = 0.8\nsamples = 17587\nvalue = [21174, 6600]"] ;
1 -> 99 ;
100 [label="Feature_55 <= 0.6\nentropy = 0.7\nsamples = 9750\nvalue = [12757, 2823]"] ;
99 -> 100 ;
101 [label="Feature_101 <= -0.3\nentropy = 0.6\nsamples = 9153\nvalue = [12211, 2413]"] ;
100 -> 101 ;
102 [label="Feature_114 <= -0.7\nentropy = 0.8\nsamples = 4079\nvalue = [5041, 1492]"] ;
101 -> 102 ;
103 [label="Feature_146 <= 2.2\nentropy = 0.4\nsamples = 1441\nvalue = [2079, 208]"] ;
102 -> 103 ;
104 [label="Feature_5 <= -1.1\nentropy = 0.3\nsamples = 1401\nvalue = [2079, 146]"] ;
103 -> 104 ;
105 [label="Feature_133 <= -0.4\nentropy = 0.8\nsamples = 304\nvalue = [368, 113]"] ;
104 -> 105 ;
106 [label="Feature_70 <= -1.5\nentropy = 0.4\nsamples = 234\nvalue = [348, 25]"] ;
105 -> 106 ;
107 [label="Feature_67 <= -2.0\nentropy = 1.0\nsamples = 39\nvalue = [40, 25]"] ;
106 -> 107 ;
108 [label="entropy = 0.0\nsamples = 22\nvalue = [40, 0]"] ;
107 -> 108 ;
109 [label="entropy = 0.0\nsamples = 17\nvalue = [0, 25]"] ;
107 -> 109 ;
110 [label="entropy = 0.0\nsamples = 195\nvalue = [308, 0]"] ;
106 -> 110 ;
111 [label="Feature_94 <= -1.2\nentropy = 0.7\nsamples = 70\nvalue = [20, 88]"] ;
105 -> 111 ;
112 [label="entropy = 0.0\nsamples = 15\nvalue = [20, 0]"] ;
111 -> 112 ;
113 [label="entropy = 0.0\nsamples = 55\nvalue = [0, 88]"] ;
111 -> 113 ;
114 [label="Feature_40 <= 0.3\nentropy = 0.1\nsamples = 1097\nvalue = [1711, 33]"] ;
104 -> 114 ;
115 [label="entropy = 0.0\nsamples = 1056\nvalue = [1670, 0]"] ;
114 -> 115 ;
116 [label="Feature_132 <= -0.3\nentropy = 1.0\nsamples = 41\nvalue = [41, 33]"] ;
114 -> 116 ;
117 [label="entropy = 0.0\nsamples = 21\nvalue = [41, 0]"] ;
116 -> 117 ;
118 [label="entropy = 0.0\nsamples = 20\nvalue = [0, 33]"] ;
116 -> 118 ;
119 [label="entropy = 0.0\nsamples = 40\nvalue = [0, 62]"] ;
103 -> 119 ;
120 [label="Feature_138 <= -0.7\nentropy = 0.9\nsamples = 2638\nvalue = [2962, 1284]"] ;
102 -> 120 ;
121 [label="entropy = 0.0\nsamples = 257\nvalue = [423, 0]"] ;
120 -> 121 ;
122 [label="Feature_53 <= -1.0\nentropy = 0.9\nsamples = 2381\nvalue = [2539, 1284]"] ;
120 -> 122 ;
123 [label="entropy = 0.0\nsamples = 64\nvalue = [0, 111]"] ;
122 -> 123 ;
124 [label="Feature_144 <= 0.2\nentropy = 0.9\nsamples = 2317\nvalue = [2539, 1173]"] ;
122 -> 124 ;
125 [label="Feature_89 <= -0.2\nentropy = 0.8\nsamples = 1710\nvalue = [2145, 613]"] ;
124 -> 125 ;
126 [label="Feature_43 <= -1.1\nentropy = 0.6\nsamples = 1216\nvalue = [1697, 292]"] ;
125 -> 126 ;
127 [label="entropy = 0.0\nsamples = 24\nvalue = [0, 42]"] ;
126 -> 127 ;
128 [label="Feature_20 <= -0.3\nentropy = 0.6\nsamples = 1192\nvalue = [1697, 250]"] ;
126 -> 128 ;
129 [label="entropy = 0.0\nsamples = 464\nvalue = [765, 0]"] ;
128 -> 129 ;
130 [label="Feature_174 <= -0.4\nentropy = 0.7\nsamples = 728\nvalue = [932, 250]"] ;
128 -> 130 ;
131 [label="entropy = 0.0\nsamples = 212\nvalue = [340, 0]"] ;
130 -> 131 ;
132 [label="Feature_44 <= -0.1\nentropy = 0.9\nsamples = 516\nvalue = [592, 250]"] ;
130 -> 132 ;
133 [label="Feature_28 <= -0.5\nentropy = 0.5\nsamples = 318\nvalue = [463, 52]"] ;
132 -> 133 ;
134 [label="Feature_189 <= -0.2\nentropy = 0.9\nsamples = 49\nvalue = [28, 52]"] ;
133 -> 134 ;
135 [label="entropy = 0.0\nsamples = 32\nvalue = [0, 52]"] ;
134 -> 135 ;
136 [label="entropy = 0.0\nsamples = 17\nvalue = [28, 0]"] ;
134 -> 136 ;
137 [label="entropy = 0.0\nsamples = 269\nvalue = [435, 0]"] ;
133 -> 137 ;
138 [label="Feature_36 <= 0.5\nentropy = 1.0\nsamples = 198\nvalue = [129, 198]"] ;
132 -> 138 ;
139 [label="Feature_46 <= 0.5\nentropy = 0.6\nsamples = 137\nvalue = [34, 198]"] ;
138 -> 139 ;
140 [label="entropy = 0.0\nsamples = 120\nvalue = [0, 198]"] ;
139 -> 140 ;
141 [label="entropy = 0.0\nsamples = 17\nvalue = [34, 0]"] ;
139 -> 141 ;
142 [label="entropy = 0.0\nsamples = 61\nvalue = [95, 0]"] ;
138 -> 142 ;
143 [label="Feature_33 <= -0.3\nentropy = 1.0\nsamples = 494\nvalue = [448, 321]"] ;
125 -> 143 ;
144 [label="Feature_139 <= 0.0\nentropy = 0.6\nsamples = 220\nvalue = [289, 51]"] ;
143 -> 144 ;
145 [label="entropy = 0.0\nsamples = 152\nvalue = [240, 0]"] ;
144 -> 145 ;
146 [label="Feature_42 <= -0.3\nentropy = 1.0\nsamples = 68\nvalue = [49, 51]"] ;
144 -> 146 ;
147 [label="entropy = 0.0\nsamples = 33\nvalue = [0, 51]"] ;
146 -> 147 ;
148 [label="entropy = 0.0\nsamples = 35\nvalue = [49, 0]"] ;
146 -> 148 ;
149 [label="Feature_121 <= 0.2\nentropy = 1.0\nsamples = 274\nvalue = [159, 270]"] ;
143 -> 149 ;
150 [label="Feature_127 <= 0.3\nentropy = 0.7\nsamples = 212\nvalue = [56, 270]"] ;
149 -> 150 ;
151 [label="entropy = 0.0\nsamples = 175\nvalue = [0, 270]"] ;
150 -> 151 ;
152 [label="entropy = 0.0\nsamples = 37\nvalue = [56, 0]"] ;
150 -> 152 ;
153 [label="entropy = 0.0\nsamples = 62\nvalue = [103, 0]"] ;
149 -> 153 ;
154 [label="Feature_66 <= -2.0\nentropy = 1.0\nsamples = 607\nvalue = [394, 560]"] ;
124 -> 154 ;
155 [label="entropy = 0.0\nsamples = 61\nvalue = [99, 0]"] ;
154 -> 155 ;
156 [label="Feature_57 <= 0.3\nentropy = 0.9\nsamples = 546\nvalue = [295, 560]"] ;
154 -> 156 ;
157 [label="Feature_46 <= -0.1\nentropy = 0.8\nsamples = 498\nvalue = [211, 560]"] ;
156 -> 157 ;
158 [label="Feature_155 <= 0.3\nentropy = 1.0\nsamples = 326\nvalue = [211, 279]"] ;
157 -> 158 ;
159 [label="Feature_189 <= -0.5\nentropy = 0.7\nsamples = 206\nvalue = [54, 253]"] ;
158 -> 159 ;
160 [label="entropy = 0.0\nsamples = 19\nvalue = [28, 0]"] ;
159 -> 160 ;
161 [label="Feature_92 <= -0.3\nentropy = 0.4\nsamples = 187\nvalue = [26, 253]"] ;
159 -> 161 ;
162 [label="entropy = 0.0\nsamples = 146\nvalue = [0, 225]"] ;
161 -> 162 ;
163 [label="entropy = 1.0\nsamples = 41\nvalue = [26, 28]"] ;
161 -> 163 ;
164 [label="Feature_14 <= -0.2\nentropy = 0.6\nsamples = 120\nvalue = [157, 26]"] ;
158 -> 164 ;
165 [label="entropy = 0.0\nsamples = 100\nvalue = [157, 0]"] ;
164 -> 165 ;
166 [label="entropy = 0.0\nsamples = 20\nvalue = [0, 26]"] ;
164 -> 166 ;
167 [label="entropy = 0.0\nsamples = 172\nvalue = [0, 281]"] ;
157 -> 167 ;
168 [label="entropy = 0.0\nsamples = 48\nvalue = [84, 0]"] ;
156 -> 168 ;
169 [label="Feature_77 <= -0.3\nentropy = 0.5\nsamples = 5074\nvalue = [7170, 921]"] ;
101 -> 169 ;
170 [label="Feature_81 <= -0.2\nentropy = 0.7\nsamples = 2535\nvalue = [3332, 706]"] ;
169 -> 170 ;
171 [label="Feature_188 <= 0.4\nentropy = 0.5\nsamples = 1886\nvalue = [2704, 303]"] ;
170 -> 171 ;
172 [label="Feature_51 <= -0.4\nentropy = 0.4\nsamples = 1819\nvalue = [2674, 236]"] ;
171 -> 172 ;
173 [label="Feature_92 <= -0.3\nentropy = 0.6\nsamples = 1134\nvalue = [1606, 236]"] ;
172 -> 173 ;
174 [label="Feature_143 <= -1.3\nentropy = 0.3\nsamples = 782\nvalue = [1201, 72]"] ;
173 -> 174 ;
175 [label="entropy = 0.0\nsamples = 16\nvalue = [0, 26]"] ;
174 -> 175 ;
176 [label="Feature_145 <= -0.4\nentropy = 0.2\nsamples = 766\nvalue = [1201, 46]"] ;
174 -> 176 ;
177 [label="Feature_145 <= -0.4\nentropy = 1.0\nsamples = 77\nvalue = [78, 46]"] ;
176 -> 177 ;
178 [label="entropy = 0.0\nsamples = 46\nvalue = [78, 0]"] ;
177 -> 178 ;
179 [label="entropy = 0.0\nsamples = 31\nvalue = [0, 46]"] ;
177 -> 179 ;
180 [label="entropy = 0.0\nsamples = 689\nvalue = [1123, 0]"] ;
176 -> 180 ;
181 [label="Feature_81 <= -0.5\nentropy = 0.9\nsamples = 352\nvalue = [405, 164]"] ;
173 -> 181 ;
182 [label="entropy = 0.0\nsamples = 53\nvalue = [0, 78]"] ;
181 -> 182 ;
183 [label="Feature_5 <= 0.1\nentropy = 0.7\nsamples = 299\nvalue = [405, 86]"] ;
181 -> 183 ;
184 [label="Feature_42 <= -0.3\nentropy = 0.3\nsamples = 262\nvalue = [405, 28]"] ;
183 -> 184 ;
185 [label="entropy = 0.0\nsamples = 226\nvalue = [375, 0]"] ;
184 -> 185 ;
186 [label="Feature_70 <= -0.4\nentropy = 1.0\nsamples = 36\nvalue = [30, 28]"] ;
184 -> 186 ;
187 [label="entropy = 0.0\nsamples = 18\nvalue = [0, 28]"] ;
186 -> 187 ;
188 [label="entropy = 0.0\nsamples = 18\nvalue = [30, 0]"] ;
186 -> 188 ;
189 [label="entropy = 0.0\nsamples = 37\nvalue = [0, 58]"] ;
183 -> 189 ;
190 [label="entropy = 0.0\nsamples = 685\nvalue = [1068, 0]"] ;
172 -> 190 ;
191 [label="Feature_99 <= -0.3\nentropy = 0.9\nsamples = 67\nvalue = [30, 67]"] ;
171 -> 191 ;
192 [label="entropy = 0.0\nsamples = 46\nvalue = [0, 67]"] ;
191 -> 192 ;
193 [label="entropy = 0.0\nsamples = 21\nvalue = [30, 0]"] ;
191 -> 193 ;
194 [label="Feature_98 <= -0.1\nentropy = 1.0\nsamples = 649\nvalue = [628, 403]"] ;
170 -> 194 ;
195 [label="entropy = 0.0\nsamples = 95\nvalue = [0, 142]"] ;
194 -> 195 ;
196 [label="Feature_166 <= 0.2\nentropy = 0.9\nsamples = 554\nvalue = [628, 261]"] ;
194 -> 196 ;
197 [label="Feature_43 <= -0.1\nentropy = 1.0\nsamples = 333\nvalue = [275, 261]"] ;
196 -> 197 ;
198 [label="Feature_101 <= -0.2\nentropy = 0.7\nsamples = 168\nvalue = [46, 228]"] ;
197 -> 198 ;
199 [label="entropy = 0.0\nsamples = 30\nvalue = [46, 0]"] ;
198 -> 199 ;
200 [label="entropy = 0.0\nsamples = 138\nvalue = [0, 228]"] ;
198 -> 200 ;
201 [label="Feature_23 <= 0.4\nentropy = 0.5\nsamples = 165\nvalue = [229, 33]"] ;
197 -> 201 ;
202 [label="entropy = 0.0\nsamples = 148\nvalue = [229, 0]"] ;
201 -> 202 ;
203 [label="entropy = 0.0\nsamples = 17\nvalue = [0, 33]"] ;
201 -> 203 ;
204 [label="entropy = 0.0\nsamples = 221\nvalue = [353, 0]"] ;
196 -> 204 ;
205 [label="Feature_4 <= 0.1\nentropy = 0.3\nsamples = 2539\nvalue = [3838, 215]"] ;
169 -> 205 ;
206 [label="Feature_37 <= 0.3\nentropy = 0.4\nsamples = 1484\nvalue = [2155, 215]"] ;
205 -> 206 ;
207 [label="Feature_98 <= 0.3\nentropy = 0.4\nsamples = 1447\nvalue = [2155, 163]"] ;
206 -> 207 ;
208 [label="Feature_26 <= 0.2\nentropy = 0.1\nsamples = 1186\nvalue = [1895, 31]"] ;
207 -> 208 ;
209 [label="entropy = 0.0\nsamples = 1168\nvalue = [1895, 0]"] ;
208 -> 209 ;
210 [label="entropy = 0.0\nsamples = 18\nvalue = [0, 31]"] ;
208 -> 210 ;
211 [label="Feature_19 <= -0.4\nentropy = 0.9\nsamples = 261\nvalue = [260, 132]"] ;
207 -> 211 ;
212 [label="entropy = 0.0\nsamples = 42\nvalue = [0, 53]"] ;
211 -> 212 ;
213 [label="Feature_79 <= -0.1\nentropy = 0.8\nsamples = 219\nvalue = [260, 79]"] ;
211 -> 213 ;
214 [label="entropy = 0.0\nsamples = 35\nvalue = [0, 48]"] ;
213 -> 214 ;
215 [label="Feature_109 <= -0.0\nentropy = 0.5\nsamples = 184\nvalue = [260, 31]"] ;
213 -> 215 ;
216 [label="Feature_173 <= -0.8\nentropy = 0.9\nsamples = 32\nvalue = [18, 31]"] ;
215 -> 216 ;
217 [label="entropy = 0.0\nsamples = 15\nvalue = [18, 0]"] ;
216 -> 217 ;
218 [label="entropy = 0.0\nsamples = 17\nvalue = [0, 31]"] ;
216 -> 218 ;
219 [label="entropy = 0.0\nsamples = 152\nvalue = [242, 0]"] ;
215 -> 219 ;
220 [label="entropy = 0.0\nsamples = 37\nvalue = [0, 52]"] ;
206 -> 220 ;
221 [label="entropy = 0.0\nsamples = 1055\nvalue = [1683, 0]"] ;
205 -> 221 ;
222 [label="Feature_8 <= 0.2\nentropy = 1.0\nsamples = 597\nvalue = [546, 410]"] ;
100 -> 222 ;
223 [label="Feature_108 <= 0.1\nentropy = 0.6\nsamples = 162\nvalue = [32, 213]"] ;
222 -> 223 ;
224 [label="entropy = 0.0\nsamples = 115\nvalue = [0, 181]"] ;
223 -> 224 ;
225 [label="Feature_63 <= 0.0\nentropy = 1.0\nsamples = 47\nvalue = [32, 32]"] ;
223 -> 225 ;
226 [label="entropy = 0.0\nsamples = 23\nvalue = [32, 0]"] ;
225 -> 226 ;
227 [label="entropy = 0.0\nsamples = 24\nvalue = [0, 32]"] ;
225 -> 227 ;
228 [label="Feature_145 <= 0.5\nentropy = 0.9\nsamples = 435\nvalue = [514, 197]"] ;
222 -> 228 ;
229 [label="Feature_147 <= -0.3\nentropy = 0.6\nsamples = 366\nvalue = [514, 92]"] ;
228 -> 229 ;
230 [label="Feature_116 <= -0.1\nentropy = 1.0\nsamples = 87\nvalue = [55, 92]"] ;
229 -> 230 ;
231 [label="entropy = 0.0\nsamples = 55\nvalue = [0, 92]"] ;
230 -> 231 ;
232 [label="entropy = 0.0\nsamples = 32\nvalue = [55, 0]"] ;
230 -> 232 ;
233 [label="entropy = 0.0\nsamples = 279\nvalue = [459, 0]"] ;
229 -> 233 ;
234 [label="entropy = 0.0\nsamples = 69\nvalue = [0, 105]"] ;
228 -> 234 ;
235 [label="Feature_150 <= -0.4\nentropy = 0.9\nsamples = 7837\nvalue = [8417, 3777]"] ;
99 -> 235 ;
236 [label="Feature_32 <= 0.2\nentropy = 0.3\nsamples = 508\nvalue = [759, 41]"] ;
235 -> 236 ;
237 [label="entropy = 0.0\nsamples = 423\nvalue = [674, 0]"] ;
236 -> 237 ;
238 [label="Feature_43 <= 0.1\nentropy = 0.9\nsamples = 85\nvalue = [85, 41]"] ;
236 -> 238 ;
239 [label="entropy = 0.0\nsamples = 29\nvalue = [0, 41]"] ;
238 -> 239 ;
240 [label="entropy = 0.0\nsamples = 56\nvalue = [85, 0]"] ;
238 -> 240 ;
241 [label="Feature_148 <= 1.9\nentropy = 0.9\nsamples = 7329\nvalue = [7658, 3736]"] ;
235 -> 241 ;
242 [label="Feature_85 <= 0.1\nentropy = 0.9\nsamples = 7223\nvalue = [7658, 3581]"] ;
241 -> 242 ;
243 [label="Feature_3 <= 0.3\nentropy = 1.0\nsamples = 3236\nvalue = [2880, 2165]"] ;
242 -> 243 ;
244 [label="Feature_108 <= -0.7\nentropy = 1.0\nsamples = 2575\nvalue = [2076, 1947]"] ;
243 -> 244 ;
245 [label="entropy = 0.0\nsamples = 119\nvalue = [0, 195]"] ;
244 -> 245 ;
246 [label="Feature_155 <= 0.3\nentropy = 1.0\nsamples = 2456\nvalue = [2076, 1752]"] ;
244 -> 246 ;
247 [label="Feature_14 <= 0.3\nentropy = 1.0\nsamples = 1995\nvalue = [1494, 1615]"] ;
246 -> 247 ;
248 [label="Feature_136 <= -0.2\nentropy = 1.0\nsamples = 1704\nvalue = [1422, 1244]"] ;
247 -> 248 ;
249 [label="Feature_182 <= 0.2\nentropy = 0.8\nsamples = 657\nvalue = [741, 279]"] ;
248 -> 249 ;
250 [label="Feature_53 <= -0.5\nentropy = 0.7\nsamples = 602\nvalue = [741, 189]"] ;
249 -> 250 ;
251 [label="Feature_125 <= -0.1\nentropy = 0.8\nsamples = 118\nvalue = [46, 138]"] ;
250 -> 251 ;
252 [label="entropy = 0.0\nsamples = 87\nvalue = [0, 138]"] ;
251 -> 252 ;
253 [label="entropy = 0.0\nsamples = 31\nvalue = [46, 0]"] ;
251 -> 253 ;
254 [label="Feature_129 <= 0.0\nentropy = 0.4\nsamples = 484\nvalue = [695, 51]"] ;
250 -> 254 ;
255 [label="entropy = 0.0\nsamples = 339\nvalue = [514, 0]"] ;
254 -> 255 ;
256 [label="Feature_75 <= -0.2\nentropy = 0.8\nsamples = 145\nvalue = [181, 51]"] ;
254 -> 256 ;
257 [label="entropy = 0.0\nsamples = 111\nvalue = [181, 0]"] ;
256 -> 257 ;
258 [label="entropy = 0.0\nsamples = 34\nvalue = [0, 51]"] ;
256 -> 258 ;
259 [label="entropy = 0.0\nsamples = 55\nvalue = [0, 90]"] ;
249 -> 259 ;
260 [label="Feature_27 <= -0.3\nentropy = 1.0\nsamples = 1047\nvalue = [681, 965]"] ;
248 -> 260 ;
261 [label="entropy = 0.0\nsamples = 201\nvalue = [0, 331]"] ;
260 -> 261 ;
262 [label="Feature_159 <= 0.4\nentropy = 1.0\nsamples = 846\nvalue = [681, 634]"] ;
260 -> 262 ;
263 [label="Feature_138 <= -0.2\nentropy = 1.0\nsamples = 678\nvalue = [419, 634]"] ;
262 -> 263 ;
264 [label="Feature_80 <= 0.0\nentropy = 0.6\nsamples = 268\nvalue = [53, 361]"] ;
263 -> 264 ;
265 [label="entropy = 0.0\nsamples = 212\nvalue = [0, 334]"] ;
264 -> 265 ;
266 [label="Feature_85 <= -0.1\nentropy = 0.9\nsamples = 56\nvalue = [53, 27]"] ;
264 -> 266 ;
267 [label="entropy = 0.0\nsamples = 36\nvalue = [53, 0]"] ;
266 -> 267 ;
268 [label="entropy = 0.0\nsamples = 20\nvalue = [0, 27]"] ;
266 -> 268 ;
269 [label="Feature_63 <= 0.1\nentropy = 1.0\nsamples = 410\nvalue = [366, 273]"] ;
263 -> 269 ;
270 [label="Feature_166 <= 0.3\nentropy = 0.5\nsamples = 181\nvalue = [245, 27]"] ;
269 -> 270 ;
271 [label="entropy = 0.0\nsamples = 161\nvalue = [245, 0]"] ;
270 -> 271 ;
272 [label="entropy = 0.0\nsamples = 20\nvalue = [0, 27]"] ;
270 -> 272 ;
273 [label="Feature_102 <= -0.2\nentropy = 0.9\nsamples = 229\nvalue = [121, 246]"] ;
269 -> 273 ;
274 [label="entropy = 0.0\nsamples = 56\nvalue = [87, 0]"] ;
273 -> 274 ;
275 [label="Feature_50 <= 0.2\nentropy = 0.5\nsamples = 173\nvalue = [34, 246]"] ;
273 -> 275 ;
276 [label="entropy = 0.0\nsamples = 130\nvalue = [0, 210]"] ;
275 -> 276 ;
277 [label="Feature_33 <= 0.1\nentropy = 1.0\nsamples = 43\nvalue = [34, 36]"] ;
275 -> 277 ;
278 [label="entropy = 0.0\nsamples = 21\nvalue = [0, 36]"] ;
277 -> 278 ;
279 [label="entropy = 0.0\nsamples = 22\nvalue = [34, 0]"] ;
277 -> 279 ;
280 [label="entropy = 0.0\nsamples = 168\nvalue = [262, 0]"] ;
262 -> 280 ;
281 [label="Feature_184 <= -0.4\nentropy = 0.6\nsamples = 291\nvalue = [72, 371]"] ;
247 -> 281 ;
282 [label="entropy = 0.0\nsamples = 41\nvalue = [72, 0]"] ;
281 -> 282 ;
283 [label="entropy = 0.0\nsamples = 250\nvalue = [0, 371]"] ;
281 -> 283 ;
284 [label="Feature_173 <= 1.0\nentropy = 0.7\nsamples = 461\nvalue = [582, 137]"] ;
246 -> 284 ;
285 [label="Feature_31 <= -0.5\nentropy = 0.5\nsamples = 425\nvalue = [582, 78]"] ;
284 -> 285 ;
286 [label="entropy = 0.0\nsamples = 18\nvalue = [0, 31]"] ;
285 -> 286 ;
287 [label="Feature_47 <= 0.7\nentropy = 0.4\nsamples = 407\nvalue = [582, 47]"] ;
285 -> 287 ;
288 [label="Feature_81 <= -0.6\nentropy = 0.2\nsamples = 389\nvalue = [582, 20]"] ;
287 -> 288 ;
289 [label="Feature_164 <= 0.7\nentropy = 1.0\nsamples = 28\nvalue = [25, 20]"] ;
288 -> 289 ;
290 [label="entropy = 0.0\nsamples = 15\nvalue = [0, 20]"] ;
289 -> 290 ;
291 [label="entropy = 0.0\nsamples = 13\nvalue = [25, 0]"] ;
289 -> 291 ;
292 [label="entropy = 0.0\nsamples = 361\nvalue = [557, 0]"] ;
288 -> 292 ;
293 [label="entropy = 0.0\nsamples = 18\nvalue = [0, 27]"] ;
287 -> 293 ;
294 [label="entropy = 0.0\nsamples = 36\nvalue = [0, 59]"] ;
284 -> 294 ;
295 [label="Feature_124 <= -0.2\nentropy = 0.7\nsamples = 661\nvalue = [804, 218]"] ;
243 -> 295 ;
296 [label="entropy = 0.0\nsamples = 301\nvalue = [469, 0]"] ;
295 -> 296 ;
297 [label="Feature_84 <= -0.2\nentropy = 1.0\nsamples = 360\nvalue = [335, 218]"] ;
295 -> 297 ;
298 [label="Feature_62 <= 0.4\nentropy = 0.6\nsamples = 100\nvalue = [24, 143]"] ;
297 -> 298 ;
299 [label="entropy = 0.0\nsamples = 16\nvalue = [24, 0]"] ;
298 -> 299 ;
300 [label="entropy = 0.0\nsamples = 84\nvalue = [0, 143]"] ;
298 -> 300 ;
301 [label="Feature_55 <= 0.3\nentropy = 0.7\nsamples = 260\nvalue = [311, 75]"] ;
297 -> 301 ;
302 [label="Feature_14 <= 0.3\nentropy = 1.0\nsamples = 121\nvalue = [104, 75]"] ;
301 -> 302 ;
303 [label="entropy = 0.0\nsamples = 35\nvalue = [53, 0]"] ;
302 -> 303 ;
304 [label="Feature_41 <= 0.3\nentropy = 1.0\nsamples = 86\nvalue = [51, 75]"] ;
302 -> 304 ;
305 [label="Feature_174 <= 0.2\nentropy = 1.0\nsamples = 75\nvalue = [51, 58]"] ;
304 -> 305 ;
306 [label="entropy = 1.0\nsamples = 39\nvalue = [28, 30]"] ;
305 -> 306 ;
307 [label="entropy = 1.0\nsamples = 36\nvalue = [23, 28]"] ;
305 -> 307 ;
308 [label="entropy = 0.0\nsamples = 11\nvalue = [0, 17]"] ;
304 -> 308 ;
309 [label="entropy = 0.0\nsamples = 139\nvalue = [207, 0]"] ;
301 -> 309 ;
310 [label="Feature_74 <= -0.0\nentropy = 0.8\nsamples = 3987\nvalue = [4778, 1416]"] ;
242 -> 310 ;
311 [label="Feature_2 <= 0.2\nentropy = 0.6\nsamples = 1722\nvalue = [2311, 344]"] ;
310 -> 311 ;
312 [label="Feature_31 <= -0.8\nentropy = 0.3\nsamples = 1034\nvalue = [1525, 70]"] ;
311 -> 312 ;
313 [label="entropy = 0.0\nsamples = 32\nvalue = [0, 47]"] ;
312 -> 313 ;
314 [label="Feature_87 <= 0.1\nentropy = 0.1\nsamples = 1002\nvalue = [1525, 23]"] ;
312 -> 314 ;
315 [label="Feature_135 <= 0.2\nentropy = 0.5\nsamples = 117\nvalue = [170, 23]"] ;
314 -> 315 ;
316 [label="entropy = 0.0\nsamples = 88\nvalue = [142, 0]"] ;
315 -> 316 ;
317 [label="Feature_146 <= 0.3\nentropy = 1.0\nsamples = 29\nvalue = [28, 23]"] ;
315 -> 317 ;
318 [label="entropy = 0.0\nsamples = 14\nvalue = [0, 23]"] ;
317 -> 318 ;
319 [label="entropy = 0.0\nsamples = 15\nvalue = [28, 0]"] ;
317 -> 319 ;
320 [label="entropy = 0.0\nsamples = 885\nvalue = [1355, 0]"] ;
314 -> 320 ;
321 [label="Feature_84 <= 0.3\nentropy = 0.8\nsamples = 688\nvalue = [786, 274]"] ;
311 -> 321 ;
322 [label="Feature_178 <= -0.0\nentropy = 1.0\nsamples = 315\nvalue = [237, 259]"] ;
321 -> 322 ;
323 [label="Feature_104 <= -0.2\nentropy = 0.8\nsamples = 182\nvalue = [211, 71]"] ;
322 -> 323 ;
324 [label="entropy = 0.0\nsamples = 107\nvalue = [172, 0]"] ;
323 -> 324 ;
325 [label="Feature_28 <= -1.6\nentropy = 0.9\nsamples = 75\nvalue = [39, 71]"] ;
323 -> 325 ;
326 [label="entropy = 0.0\nsamples = 26\nvalue = [39, 0]"] ;
325 -> 326 ;
327 [label="entropy = 0.0\nsamples = 49\nvalue = [0, 71]"] ;
325 -> 327 ;
328 [label="Feature_53 <= 0.4\nentropy = 0.5\nsamples = 133\nvalue = [26, 188]"] ;
322 -> 328 ;
329 [label="entropy = 0.0\nsamples = 116\nvalue = [0, 188]"] ;
328 -> 329 ;
330 [label="entropy = 0.0\nsamples = 17\nvalue = [26, 0]"] ;
328 -> 330 ;
331 [label="Feature_125 <= -0.5\nentropy = 0.2\nsamples = 373\nvalue = [549, 15]"] ;
321 -> 331 ;
332 [label="Feature_107 <= -0.3\nentropy = 1.0\nsamples = 25\nvalue = [24, 15]"] ;
331 -> 332 ;
333 [label="entropy = 0.0\nsamples = 10\nvalue = [0, 15]"] ;
332 -> 333 ;
334 [label="entropy = 0.0\nsamples = 15\nvalue = [24, 0]"] ;
332 -> 334 ;
335 [label="entropy = 0.0\nsamples = 348\nvalue = [525, 0]"] ;
331 -> 335 ;
336 [label="Feature_62 <= 0.4\nentropy = 0.9\nsamples = 2265\nvalue = [2467, 1072]"] ;
310 -> 336 ;
337 [label="Feature_90 <= -0.2\nentropy = 1.0\nsamples = 1530\nvalue = [1478, 925]"] ;
336 -> 337 ;
338 [label="entropy = 0.0\nsamples = 105\nvalue = [0, 163]"] ;
337 -> 338 ;
339 [label="Feature_75 <= 0.5\nentropy = 0.9\nsamples = 1425\nvalue = [1478, 762]"] ;
337 -> 339 ;
340 [label="Feature_137 <= -0.2\nentropy = 0.8\nsamples = 1186\nvalue = [1391, 495]"] ;
339 -> 340 ;
341 [label="Feature_76 <= 0.4\nentropy = 0.3\nsamples = 295\nvalue = [451, 26]"] ;
340 -> 341 ;
342 [label="entropy = 0.0\nsamples = 280\nvalue = [451, 0]"] ;
341 -> 342 ;
343 [label="entropy = 0.0\nsamples = 15\nvalue = [0, 26]"] ;
341 -> 343 ;
344 [label="Feature_78 <= 0.2\nentropy = 0.9\nsamples = 891\nvalue = [940, 469]"] ;
340 -> 344 ;
345 [label="Feature_115 <= -0.4\nentropy = 0.7\nsamples = 609\nvalue = [766, 204]"] ;
344 -> 345 ;
346 [label="entropy = 0.0\nsamples = 54\nvalue = [0, 79]"] ;
345 -> 346 ;
347 [label="Feature_103 <= 0.3\nentropy = 0.6\nsamples = 555\nvalue = [766, 125]"] ;
345 -> 347 ;
348 [label="Feature_20 <= -0.1\nentropy = 1.0\nsamples = 101\nvalue = [74, 76]"] ;
347 -> 348 ;
349 [label="entropy = 0.0\nsamples = 58\nvalue = [74, 0]"] ;
348 -> 349 ;
350 [label="entropy = 0.0\nsamples = 43\nvalue = [0, 76]"] ;
348 -> 350 ;
351 [label="Feature_168 <= -0.1\nentropy = 0.4\nsamples = 454\nvalue = [692, 49]"] ;
347 -> 351 ;
352 [label="Feature_62 <= 0.1\nentropy = 1.0\nsamples = 67\nvalue = [60, 49]"] ;
351 -> 352 ;
353 [label="entropy = 0.0\nsamples = 37\nvalue = [60, 0]"] ;
352 -> 353 ;
354 [label="entropy = 0.0\nsamples = 30\nvalue = [0, 49]"] ;
352 -> 354 ;
355 [label="entropy = 0.0\nsamples = 387\nvalue = [632, 0]"] ;
351 -> 355 ;
356 [label="Feature_33 <= 0.4\nentropy = 1.0\nsamples = 282\nvalue = [174, 265]"] ;
344 -> 356 ;
357 [label="Feature_20 <= 0.1\nentropy = 0.9\nsamples = 172\nvalue = [174, 85]"] ;
356 -> 357 ;
358 [label="entropy = 0.0\nsamples = 70\nvalue = [107, 0]"] ;
357 -> 358 ;
359 [label="Feature_54 <= -0.6\nentropy = 1.0\nsamples = 102\nvalue = [67, 85]"] ;
357 -> 359 ;
360 [label="entropy = 0.0\nsamples = 25\nvalue = [0, 40]"] ;
359 -> 360 ;
361 [label="Feature_141 <= 0.3\nentropy = 1.0\nsamples = 77\nvalue = [67, 45]"] ;
359 -> 361 ;
362 [label="entropy = 0.0\nsamples = 15\nvalue = [20, 0]"] ;
361 -> 362 ;
363 [label="Feature_121 <= 0.3\nentropy = 1.0\nsamples = 62\nvalue = [47, 45]"] ;
361 -> 363 ;
364 [label="entropy = 1.0\nsamples = 35\nvalue = [25, 25]"] ;
363 -> 364 ;
365 [label="entropy = 1.0\nsamples = 27\nvalue = [22, 20]"] ;
363 -> 365 ;
366 [label="entropy = 0.0\nsamples = 110\nvalue = [0, 180]"] ;
356 -> 366 ;
367 [label="Feature_174 <= 0.4\nentropy = 0.8\nsamples = 239\nvalue = [87, 267]"] ;
339 -> 367 ;
368 [label="entropy = 0.0\nsamples = 138\nvalue = [0, 196]"] ;
367 -> 368 ;
369 [label="Feature_91 <= 0.3\nentropy = 1.0\nsamples = 101\nvalue = [87, 71]"] ;
367 -> 369 ;
370 [label="entropy = 0.0\nsamples = 57\nvalue = [87, 0]"] ;
369 -> 370 ;
371 [label="entropy = 0.0\nsamples = 44\nvalue = [0, 71]"] ;
369 -> 371 ;
372 [label="Feature_132 <= 0.6\nentropy = 0.6\nsamples = 735\nvalue = [989, 147]"] ;
336 -> 372 ;
373 [label="Feature_71 <= -0.3\nentropy = 0.3\nsamples = 547\nvalue = [808, 36]"] ;
372 -> 373 ;
374 [label="Feature_129 <= -0.4\nentropy = 0.9\nsamples = 37\nvalue = [21, 36]"] ;
373 -> 374 ;
375 [label="entropy = 0.0\nsamples = 15\nvalue = [21, 0]"] ;
374 -> 375 ;
376 [label="entropy = 0.0\nsamples = 22\nvalue = [0, 36]"] ;
374 -> 376 ;
377 [label="entropy = 0.0\nsamples = 510\nvalue = [787, 0]"] ;
373 -> 377 ;
378 [label="Feature_28 <= 0.3\nentropy = 1.0\nsamples = 188\nvalue = [181, 111]"] ;
372 -> 378 ;
379 [label="entropy = 0.0\nsamples = 70\nvalue = [111, 0]"] ;
378 -> 379 ;
380 [label="Feature_10 <= 1.1\nentropy = 1.0\nsamples = 118\nvalue = [70, 111]"] ;
378 -> 380 ;
381 [label="entropy = 0.0\nsamples = 73\nvalue = [0, 111]"] ;
380 -> 381 ;
382 [label="entropy = 0.0\nsamples = 45\nvalue = [70, 0]"] ;
380 -> 382 ;
383 [label="entropy = 0.0\nsamples = 106\nvalue = [0, 155]"] ;
241 -> 383 ;
384 [label="Feature_84 <= 0.3\nentropy = 1.0\nsamples = 12768\nvalue = [11266, 9000]"] ;
0 -> 384 [labeldistance=2.5, labelangle=-45, headlabel="False"] ;
385 [label="Feature_177 <= 1.2\nentropy = 1.0\nsamples = 5168\nvalue = [3382, 4855]"] ;
384 -> 385 ;
386 [label="Feature_122 <= 0.3\nentropy = 1.0\nsamples = 4966\nvalue = [3382, 4526]"] ;
385 -> 386 ;
387 [label="Feature_63 <= -0.4\nentropy = 0.9\nsamples = 1729\nvalue = [1773, 996]"] ;
386 -> 387 ;
388 [label="entropy = 0.0\nsamples = 243\nvalue = [406, 0]"] ;
387 -> 388 ;
389 [label="Feature_45 <= -0.3\nentropy = 1.0\nsamples = 1486\nvalue = [1367, 996]"] ;
387 -> 389 ;
390 [label="entropy = 0.0\nsamples = 156\nvalue = [0, 266]"] ;
389 -> 390 ;
391 [label="Feature_185 <= -0.3\nentropy = 0.9\nsamples = 1330\nvalue = [1367, 730]"] ;
389 -> 391 ;
392 [label="Feature_89 <= -0.0\nentropy = 0.9\nsamples = 310\nvalue = [159, 324]"] ;
391 -> 392 ;
393 [label="entropy = 0.0\nsamples = 122\nvalue = [0, 196]"] ;
392 -> 393 ;
394 [label="Feature_102 <= 0.1\nentropy = 1.0\nsamples = 188\nvalue = [159, 128]"] ;
392 -> 394 ;
395 [label="Feature_70 <= 0.3\nentropy = 0.9\nsamples = 120\nvalue = [49, 128]"] ;
394 -> 395 ;
396 [label="entropy = 0.0\nsamples = 82\nvalue = [0, 128]"] ;
395 -> 396 ;
397 [label="entropy = 0.0\nsamples = 38\nvalue = [49, 0]"] ;
395 -> 397 ;
398 [label="entropy = 0.0\nsamples = 68\nvalue = [110, 0]"] ;
394 -> 398 ;
399 [label="Feature_42 <= -0.2\nentropy = 0.8\nsamples = 1020\nvalue = [1208, 406]"] ;
391 -> 399 ;
400 [label="entropy = 0.0\nsamples = 52\nvalue = [0, 75]"] ;
399 -> 400 ;
401 [label="Feature_35 <= 0.7\nentropy = 0.8\nsamples = 968\nvalue = [1208, 331]"] ;
399 -> 401 ;
402 [label="Feature_96 <= 0.2\nentropy = 0.6\nsamples = 892\nvalue = [1208, 218]"] ;
401 -> 402 ;
403 [label="Feature_186 <= 0.7\nentropy = 0.8\nsamples = 511\nvalue = [596, 218]"] ;
402 -> 403 ;
404 [label="Feature_158 <= -0.2\nentropy = 0.7\nsamples = 458\nvalue = [596, 134]"] ;
403 -> 404 ;
405 [label="Feature_104 <= 0.4\nentropy = 1.0\nsamples = 105\nvalue = [61, 104]"] ;
404 -> 405 ;
406 [label="entropy = 0.0\nsamples = 39\nvalue = [61, 0]"] ;
405 -> 406 ;
407 [label="entropy = 0.0\nsamples = 66\nvalue = [0, 104]"] ;
405 -> 407 ;
408 [label="Feature_107 <= 0.5\nentropy = 0.3\nsamples = 353\nvalue = [535, 30]"] ;
404 -> 408 ;
409 [label="entropy = 0.0\nsamples = 334\nvalue = [535, 0]"] ;
408 -> 409 ;
410 [label="entropy = 0.0\nsamples = 19\nvalue = [0, 30]"] ;
408 -> 410 ;
411 [label="entropy = 0.0\nsamples = 53\nvalue = [0, 84]"] ;
403 -> 411 ;
412 [label="entropy = 0.0\nsamples = 381\nvalue = [612, 0]"] ;
402 -> 412 ;
413 [label="entropy = 0.0\nsamples = 76\nvalue = [0, 113]"] ;
401 -> 413 ;
414 [label="Feature_76 <= 0.7\nentropy = 0.9\nsamples = 3237\nvalue = [1609, 3530]"] ;
386 -> 414 ;
415 [label="Feature_144 <= 0.4\nentropy = 0.9\nsamples = 2693\nvalue = [1570, 2686]"] ;
414 -> 415 ;
416 [label="Feature_116 <= 0.6\nentropy = 0.9\nsamples = 1746\nvalue = [771, 1970]"] ;
415 -> 416 ;
417 [label="Feature_122 <= 0.6\nentropy = 0.7\nsamples = 1232\nvalue = [342, 1570]"] ;
416 -> 417 ;
418 [label="Feature_181 <= 0.4\nentropy = 0.9\nsamples = 670\nvalue = [300, 748]"] ;
417 -> 418 ;
419 [label="Feature_128 <= 0.0\nentropy = 0.9\nsamples = 556\nvalue = [300, 574]"] ;
418 -> 419 ;
420 [label="Feature_72 <= 0.1\nentropy = 1.0\nsamples = 457\nvalue = [300, 415]"] ;
419 -> 420 ;
421 [label="Feature_161 <= -0.7\nentropy = 0.9\nsamples = 204\nvalue = [213, 83]"] ;
420 -> 421 ;
422 [label="entropy = 0.0\nsamples = 36\nvalue = [0, 54]"] ;
421 -> 422 ;
423 [label="Feature_174 <= 0.4\nentropy = 0.5\nsamples = 168\nvalue = [213, 29]"] ;
421 -> 423 ;
424 [label="entropy = 0.0\nsamples = 128\nvalue = [184, 0]"] ;
423 -> 424 ;
425 [label="entropy = 1.0\nsamples = 40\nvalue = [29, 29]"] ;
423 -> 425 ;
426 [label="Feature_189 <= -0.2\nentropy = 0.7\nsamples = 253\nvalue = [87, 332]"] ;
420 -> 426 ;
427 [label="Feature_8 <= 0.5\nentropy = 1.0\nsamples = 114\nvalue = [87, 87]"] ;
426 -> 427 ;
428 [label="Feature_12 <= 0.6\nentropy = 0.8\nsamples = 72\nvalue = [26, 87]"] ;
427 -> 428 ;
429 [label="entropy = 0.0\nsamples = 35\nvalue = [0, 57]"] ;
428 -> 429 ;
430 [label="entropy = 1.0\nsamples = 37\nvalue = [26, 30]"] ;
428 -> 430 ;
431 [label="entropy = 0.0\nsamples = 42\nvalue = [61, 0]"] ;
427 -> 431 ;
432 [label="entropy = 0.0\nsamples = 139\nvalue = [0, 245]"] ;
426 -> 432 ;
433 [label="entropy = 0.0\nsamples = 99\nvalue = [0, 159]"] ;
419 -> 433 ;
434 [label="entropy = 0.0\nsamples = 114\nvalue = [0, 174]"] ;
418 -> 434 ;
435 [label="Feature_105 <= 1.0\nentropy = 0.3\nsamples = 562\nvalue = [42, 822]"] ;
417 -> 435 ;
436 [label="entropy = 0.0\nsamples = 536\nvalue = [0, 822]"] ;
435 -> 436 ;
437 [label="entropy = 0.0\nsamples = 26\nvalue = [42, 0]"] ;
435 -> 437 ;
438 [label="Feature_131 <= -0.2\nentropy = 1.0\nsamples = 514\nvalue = [429, 400]"] ;
416 -> 438 ;
439 [label="Feature_123 <= 0.5\nentropy = 0.8\nsamples = 188\nvalue = [69, 247]"] ;
438 -> 439 ;
440 [label="entropy = 0.0\nsamples = 43\nvalue = [69, 0]"] ;
439 -> 440 ;
441 [label="entropy = 0.0\nsamples = 145\nvalue = [0, 247]"] ;
439 -> 441 ;
442 [label="Feature_183 <= -0.1\nentropy = 0.9\nsamples = 326\nvalue = [360, 153]"] ;
438 -> 442 ;
443 [label="entropy = 0.0\nsamples = 114\nvalue = [200, 0]"] ;
442 -> 443 ;
444 [label="Feature_45 <= 0.8\nentropy = 1.0\nsamples = 212\nvalue = [160, 153]"] ;
442 -> 444 ;
445 [label="Feature_74 <= 0.3\nentropy = 0.8\nsamples = 133\nvalue = [44, 153]"] ;
444 -> 445 ;
446 [label="entropy = 0.0\nsamples = 31\nvalue = [44, 0]"] ;
445 -> 446 ;
447 [label="entropy = 0.0\nsamples = 102\nvalue = [0, 153]"] ;
445 -> 447 ;
448 [label="entropy = 0.0\nsamples = 79\nvalue = [116, 0]"] ;
444 -> 448 ;
449 [label="Feature_153 <= 0.2\nentropy = 1.0\nsamples = 947\nvalue = [799, 716]"] ;
415 -> 449 ;
450 [label="Feature_59 <= 0.8\nentropy = 0.8\nsamples = 435\nvalue = [544, 154]"] ;
449 -> 450 ;
451 [label="Feature_180 <= 0.4\nentropy = 1.0\nsamples = 254\nvalue = [256, 154]"] ;
450 -> 451 ;
452 [label="Feature_1 <= 0.5\nentropy = 0.5\nsamples = 165\nvalue = [230, 27]"] ;
451 -> 452 ;
453 [label="entropy = 0.0\nsamples = 129\nvalue = [201, 0]"] ;
452 -> 453 ;
454 [label="entropy = 1.0\nsamples = 36\nvalue = [29, 27]"] ;
452 -> 454 ;
455 [label="Feature_91 <= -0.4\nentropy = 0.7\nsamples = 89\nvalue = [26, 127]"] ;
451 -> 455 ;
456 [label="entropy = 0.0\nsamples = 14\nvalue = [26, 0]"] ;
455 -> 456 ;
457 [label="entropy = 0.0\nsamples = 75\nvalue = [0, 127]"] ;
455 -> 457 ;
458 [label="entropy = 0.0\nsamples = 181\nvalue = [288, 0]"] ;
450 -> 458 ;
459 [label="Feature_65 <= 0.2\nentropy = 0.9\nsamples = 512\nvalue = [255, 562]"] ;
449 -> 459 ;
460 [label="Feature_25 <= 0.1\nentropy = 0.7\nsamples = 416\nvalue = [113, 562]"] ;
459 -> 460 ;
461 [label="entropy = 0.0\nsamples = 190\nvalue = [0, 293]"] ;
460 -> 461 ;
462 [label="Feature_173 <= 0.3\nentropy = 0.9\nsamples = 226\nvalue = [113, 269]"] ;
460 -> 462 ;
463 [label="entropy = 0.0\nsamples = 39\nvalue = [63, 0]"] ;
462 -> 463 ;
464 [label="Feature_159 <= 0.9\nentropy = 0.6\nsamples = 187\nvalue = [50, 269]"] ;
462 -> 464 ;
465 [label="entropy = 0.0\nsamples = 145\nvalue = [0, 247]"] ;
464 -> 465 ;
466 [label="Feature_147 <= 0.8\nentropy = 0.9\nsamples = 42\nvalue = [50, 22]"] ;
464 -> 466 ;
467 [label="entropy = 0.0\nsamples = 11\nvalue = [19, 0]"] ;
466 -> 467 ;
468 [label="entropy = 1.0\nsamples = 31\nvalue = [31, 22]"] ;
466 -> 468 ;
469 [label="entropy = 0.0\nsamples = 96\nvalue = [142, 0]"] ;
459 -> 469 ;
470 [label="Feature_134 <= 0.8\nentropy = 0.3\nsamples = 544\nvalue = [39, 844]"] ;
414 -> 470 ;
471 [label="Feature_34 <= 0.7\nentropy = 0.1\nsamples = 530\nvalue = [18, 844]"] ;
470 -> 471 ;
472 [label="entropy = 0.0\nsamples = 516\nvalue = [0, 844]"] ;
471 -> 472 ;
473 [label="entropy = 0.0\nsamples = 14\nvalue = [18, 0]"] ;
471 -> 473 ;
474 [label="entropy = 0.0\nsamples = 14\nvalue = [21, 0]"] ;
470 -> 474 ;
475 [label="entropy = 0.0\nsamples = 202\nvalue = [0, 329]"] ;
385 -> 475 ;
476 [label="Feature_187 <= -0.3\nentropy = 0.9\nsamples = 7600\nvalue = [7884, 4145]"] ;
384 -> 476 ;
477 [label="Feature_53 <= -0.0\nentropy = 0.5\nsamples = 785\nvalue = [1113, 121]"] ;
476 -> 477 ;
478 [label="Feature_40 <= 0.3\nentropy = 0.9\nsamples = 236\nvalue = [250, 121]"] ;
477 -> 478 ;
479 [label="Feature_128 <= 0.1\nentropy = 0.5\nsamples = 174\nvalue = [250, 27]"] ;
478 -> 479 ;
480 [label="entropy = 0.0\nsamples = 158\nvalue = [250, 0]"] ;
479 -> 480 ;
481 [label="entropy = 0.0\nsamples = 16\nvalue = [0, 27]"] ;
479 -> 481 ;
482 [label="entropy = 0.0\nsamples = 62\nvalue = [0, 94]"] ;
478 -> 482 ;
483 [label="entropy = 0.0\nsamples = 549\nvalue = [863, 0]"] ;
477 -> 483 ;
484 [label="Feature_151 <= -0.3\nentropy = 1.0\nsamples = 6815\nvalue = [6771, 4024]"] ;
476 -> 484 ;
485 [label="Feature_27 <= 0.5\nentropy = 0.8\nsamples = 238\nvalue = [83, 286]"] ;
484 -> 485 ;
486 [label="entropy = 0.0\nsamples = 169\nvalue = [0, 257]"] ;
485 -> 486 ;
487 [label="Feature_54 <= 1.0\nentropy = 0.8\nsamples = 69\nvalue = [83, 29]"] ;
485 -> 487 ;
488 [label="entropy = 0.0\nsamples = 20\nvalue = [0, 29]"] ;
487 -> 488 ;
489 [label="entropy = 0.0\nsamples = 49\nvalue = [83, 0]"] ;
487 -> 489 ;
490 [label="Feature_101 <= 0.1\nentropy = 0.9\nsamples = 6577\nvalue = [6688, 3738]"] ;
484 -> 490 ;
491 [label="entropy = 0.0\nsamples = 253\nvalue = [388, 0]"] ;
490 -> 491 ;
492 [label="Feature_77 <= 0.8\nentropy = 1.0\nsamples = 6324\nvalue = [6300, 3738]"] ;
490 -> 492 ;
493 [label="Feature_149 <= 0.1\nentropy = 0.9\nsamples = 3342\nvalue = [3741, 1525]"] ;
492 -> 493 ;
494 [label="Feature_89 <= 0.5\nentropy = 1.0\nsamples = 750\nvalue = [630, 583]"] ;
493 -> 494 ;
495 [label="Feature_153 <= 0.2\nentropy = 0.9\nsamples = 534\nvalue = [569, 270]"] ;
494 -> 495 ;
496 [label="Feature_62 <= 0.4\nentropy = 0.8\nsamples = 460\nvalue = [569, 157]"] ;
495 -> 496 ;
497 [label="entropy = 0.0\nsamples = 190\nvalue = [307, 0]"] ;
496 -> 497 ;
498 [label="Feature_56 <= 0.7\nentropy = 1.0\nsamples = 270\nvalue = [262, 157]"] ;
496 -> 498 ;
499 [label="Feature_142 <= -0.0\nentropy = 1.0\nsamples = 185\nvalue = [124, 157]"] ;
498 -> 499 ;
500 [label="Feature_116 <= 0.2\nentropy = 0.9\nsamples = 113\nvalue = [124, 52]"] ;
499 -> 500 ;
501 [label="entropy = 0.0\nsamples = 29\nvalue = [0, 52]"] ;
500 -> 501 ;
502 [label="entropy = 0.0\nsamples = 84\nvalue = [124, 0]"] ;
500 -> 502 ;
503 [label="entropy = 0.0\nsamples = 72\nvalue = [0, 105]"] ;
499 -> 503 ;
504 [label="entropy = 0.0\nsamples = 85\nvalue = [138, 0]"] ;
498 -> 504 ;
505 [label="entropy = 0.0\nsamples = 74\nvalue = [0, 113]"] ;
495 -> 505 ;
506 [label="Feature_105 <= 0.7\nentropy = 0.6\nsamples = 216\nvalue = [61, 313]"] ;
494 -> 506 ;
507 [label="entropy = 0.0\nsamples = 154\nvalue = [0, 263]"] ;
506 -> 507 ;
508 [label="Feature_116 <= 1.0\nentropy = 1.0\nsamples = 62\nvalue = [61, 50]"] ;
506 -> 508 ;
509 [label="entropy = 0.0\nsamples = 37\nvalue = [61, 0]"] ;
508 -> 509 ;
510 [label="entropy = 0.0\nsamples = 25\nvalue = [0, 50]"] ;
508 -> 510 ;
511 [label="Feature_106 <= 0.8\nentropy = 0.8\nsamples = 2592\nvalue = [3111, 942]"] ;
493 -> 511 ;
512 [label="Feature_80 <= 0.6\nentropy = 0.8\nsamples = 2222\nvalue = [2554, 942]"] ;
511 -> 512 ;
513 [label="Feature_33 <= -0.4\nentropy = 0.7\nsamples = 1382\nvalue = [1785, 386]"] ;
512 -> 513 ;
514 [label="Feature_26 <= 0.0\nentropy = 0.8\nsamples = 95\nvalue = [32, 107]"] ;
513 -> 514 ;
515 [label="entropy = 0.0\nsamples = 71\nvalue = [0, 107]"] ;
514 -> 515 ;
516 [label="entropy = 0.0\nsamples = 24\nvalue = [32, 0]"] ;
514 -> 516 ;
517 [label="Feature_46 <= 1.0\nentropy = 0.6\nsamples = 1287\nvalue = [1753, 279]"] ;
513 -> 517 ;
518 [label="Feature_28 <= 0.6\nentropy = 0.4\nsamples = 1138\nvalue = [1647, 151]"] ;
517 -> 518 ;
519 [label="Feature_85 <= 0.8\nentropy = 0.2\nsamples = 1028\nvalue = [1568, 56]"] ;
518 -> 519 ;
520 [label="Feature_116 <= -0.1\nentropy = 0.1\nsamples = 861\nvalue = [1365, 14]"] ;
519 -> 520 ;
521 [label="Feature_163 <= 0.5\nentropy = 0.5\nsamples = 80\nvalue = [110, 14]"] ;
520 -> 521 ;
522 [label="entropy = 0.0\nsamples = 66\nvalue = [110, 0]"] ;
521 -> 522 ;
523 [label="entropy = 0.0\nsamples = 14\nvalue = [0, 14]"] ;
521 -> 523 ;
524 [label="entropy = 0.0\nsamples = 781\nvalue = [1255, 0]"] ;
520 -> 524 ;
525 [label="Feature_71 <= 0.5\nentropy = 0.7\nsamples = 167\nvalue = [203, 42]"] ;
519 -> 525 ;
526 [label="Feature_137 <= -0.1\nentropy = 1.0\nsamples = 53\nvalue = [35, 42]"] ;
525 -> 526 ;
527 [label="entropy = 0.0\nsamples = 21\nvalue = [35, 0]"] ;
526 -> 527 ;
528 [label="entropy = 0.0\nsamples = 32\nvalue = [0, 42]"] ;
526 -> 528 ;
529 [label="entropy = 0.0\nsamples = 114\nvalue = [168, 0]"] ;
525 -> 529 ;
530 [label="Feature_18 <= 0.6\nentropy = 1.0\nsamples = 110\nvalue = [79, 95]"] ;
518 -> 530 ;
531 [label="Feature_105 <= 0.3\nentropy = 0.6\nsamples = 72\nvalue = [18, 95]"] ;
530 -> 531 ;
532 [label="entropy = 0.0\nsamples = 13\nvalue = [18, 0]"] ;
531 -> 532 ;
533 [label="entropy = 0.0\nsamples = 59\nvalue = [0, 95]"] ;
531 -> 533 ;
534 [label="entropy = 0.0\nsamples = 38\nvalue = [61, 0]"] ;
530 -> 534 ;
535 [label="Feature_158 <= 0.2\nentropy = 1.0\nsamples = 149\nvalue = [106, 128]"] ;
517 -> 535 ;
536 [label="entropy = 0.0\nsamples = 51\nvalue = [76, 0]"] ;
535 -> 536 ;
537 [label="Feature_163 <= 0.9\nentropy = 0.7\nsamples = 98\nvalue = [30, 128]"] ;
535 -> 537 ;
538 [label="entropy = 0.0\nsamples = 81\nvalue = [0, 128]"] ;
537 -> 538 ;
539 [label="entropy = 0.0\nsamples = 17\nvalue = [30, 0]"] ;
537 -> 539 ;
540 [label="Feature_144 <= 1.2\nentropy = 1.0\nsamples = 840\nvalue = [769, 556]"] ;
512 -> 540 ;
541 [label="Feature_141 <= 0.4\nentropy = 0.9\nsamples = 765\nvalue = [769, 437]"] ;
540 -> 541 ;
542 [label="Feature_149 <= 0.2\nentropy = 1.0\nsamples = 452\nvalue = [350, 346]"] ;
541 -> 542 ;
543 [label="entropy = 0.0\nsamples = 100\nvalue = [0, 152]"] ;
542 -> 543 ;
544 [label="Feature_148 <= 0.7\nentropy = 0.9\nsamples = 352\nvalue = [350, 194]"] ;
542 -> 544 ;
545 [label="Feature_101 <= 0.4\nentropy = 0.7\nsamples = 290\nvalue = [350, 95]"] ;
544 -> 545 ;
546 [label="Feature_37 <= 0.3\nentropy = 1.0\nsamples = 109\nvalue = [66, 95]"] ;
545 -> 546 ;
547 [label="entropy = 0.0\nsamples = 43\nvalue = [0, 67]"] ;
546 -> 547 ;
548 [label="Feature_19 <= 0.9\nentropy = 0.9\nsamples = 66\nvalue = [66, 28]"] ;
546 -> 548 ;
549 [label="entropy = 1.0\nsamples = 46\nvalue = [38, 28]"] ;
548 -> 549 ;
550 [label="entropy = 0.0\nsamples = 20\nvalue = [28, 0]"] ;
548 -> 550 ;
551 [label="entropy = 0.0\nsamples = 181\nvalue = [284, 0]"] ;
545 -> 551 ;
552 [label="entropy = 0.0\nsamples = 62\nvalue = [0, 99]"] ;
544 -> 552 ;
553 [label="Feature_167 <= 0.9\nentropy = 0.7\nsamples = 313\nvalue = [419, 91]"] ;
541 -> 553 ;
554 [label="Feature_161 <= 1.4\nentropy = 0.4\nsamples = 271\nvalue = [419, 31]"] ;
553 -> 554 ;
555 [label="entropy = 0.0\nsamples = 233\nvalue = [392, 0]"] ;
554 -> 555 ;
556 [label="Feature_53 <= -0.1\nentropy = 1.0\nsamples = 38\nvalue = [27, 31]"] ;
554 -> 556 ;
557 [label="entropy = 0.0\nsamples = 19\nvalue = [27, 0]"] ;
556 -> 557 ;
558 [label="entropy = 0.0\nsamples = 19\nvalue = [0, 31]"] ;
556 -> 558 ;
559 [label="entropy = 0.0\nsamples = 42\nvalue = [0, 60]"] ;
553 -> 559 ;
560 [label="entropy = 0.0\nsamples = 75\nvalue = [0, 119]"] ;
540 -> 560 ;
561 [label="entropy = 0.0\nsamples = 370\nvalue = [557, 0]"] ;
511 -> 561 ;
562 [label="Feature_83 <= 1.0\nentropy = 1.0\nsamples = 2982\nvalue = [2559, 2213]"] ;
492 -> 562 ;
563 [label="Feature_187 <= 3.9\nentropy = 1.0\nsamples = 1993\nvalue = [1377, 1828]"] ;
562 -> 563 ;
564 [label="Feature_136 <= 1.1\nentropy = 1.0\nsamples = 1873\nvalue = [1177, 1828]"] ;
563 -> 564 ;
565 [label="Feature_79 <= 0.7\nentropy = 1.0\nsamples = 1653\nvalue = [1177, 1466]"] ;
564 -> 565 ;
566 [label="entropy = 0.0\nsamples = 193\nvalue = [0, 307]"] ;
565 -> 566 ;
567 [label="Feature_53 <= 0.1\nentropy = 1.0\nsamples = 1460\nvalue = [1177, 1159]"] ;
565 -> 567 ;
568 [label="Feature_181 <= -0.0\nentropy = 0.6\nsamples = 408\nvalue = [105, 546]"] ;
567 -> 568 ;
569 [label="entropy = 0.0\nsamples = 42\nvalue = [70, 0]"] ;
568 -> 569 ;
570 [label="Feature_93 <= 0.6\nentropy = 0.3\nsamples = 366\nvalue = [35, 546]"] ;
568 -> 570 ;
571 [label="Feature_173 <= 0.2\nentropy = 1.0\nsamples = 39\nvalue = [35, 28]"] ;
570 -> 571 ;
572 [label="entropy = 0.0\nsamples = 18\nvalue = [0, 28]"] ;
571 -> 572 ;
573 [label="entropy = 0.0\nsamples = 21\nvalue = [35, 0]"] ;
571 -> 573 ;
574 [label="entropy = 0.0\nsamples = 327\nvalue = [0, 518]"] ;
570 -> 574 ;
575 [label="Feature_118 <= 1.4\nentropy = 0.9\nsamples = 1052\nvalue = [1072, 613]"] ;
567 -> 575 ;
576 [label="Feature_166 <= -0.2\nentropy = 1.0\nsamples = 863\nvalue = [768, 613]"] ;
575 -> 576 ;
577 [label="entropy = 0.0\nsamples = 118\nvalue = [199, 0]"] ;
576 -> 577 ;
578 [label="Feature_107 <= 1.0\nentropy = 1.0\nsamples = 745\nvalue = [569, 613]"] ;
576 -> 578 ;
579 [label="Feature_185 <= 0.0\nentropy = 0.6\nsamples = 367\nvalue = [496, 82]"] ;
578 -> 579 ;
580 [label="entropy = 0.0\nsamples = 43\nvalue = [0, 58]"] ;
579 -> 580 ;
581 [label="Feature_92 <= 0.7\nentropy = 0.3\nsamples = 324\nvalue = [496, 24]"] ;
579 -> 581 ;
582 [label="Feature_121 <= 0.7\nentropy = 0.7\nsamples = 78\nvalue = [89, 24]"] ;
581 -> 582 ;
583 [label="entropy = 0.0\nsamples = 61\nvalue = [89, 0]"] ;
582 -> 583 ;
584 [label="entropy = 0.0\nsamples = 17\nvalue = [0, 24]"] ;
582 -> 584 ;
585 [label="entropy = 0.0\nsamples = 246\nvalue = [407, 0]"] ;
581 -> 585 ;
586 [label="Feature_91 <= 0.1\nentropy = 0.5\nsamples = 378\nvalue = [73, 531]"] ;
578 -> 586 ;
587 [label="Feature_48 <= 1.3\nentropy = 0.9\nsamples = 44\nvalue = [51, 22]"] ;
586 -> 587 ;
588 [label="entropy = 0.0\nsamples = 32\nvalue = [51, 0]"] ;
587 -> 588 ;
589 [label="entropy = 0.0\nsamples = 12\nvalue = [0, 22]"] ;
587 -> 589 ;
590 [label="Feature_79 <= 0.7\nentropy = 0.2\nsamples = 334\nvalue = [22, 509]"] ;
586 -> 590 ;
591 [label="entropy = 0.0\nsamples = 16\nvalue = [22, 0]"] ;
590 -> 591 ;
592 [label="entropy = 0.0\nsamples = 318\nvalue = [0, 509]"] ;
590 -> 592 ;
593 [label="entropy = 0.0\nsamples = 189\nvalue = [304, 0]"] ;
575 -> 593 ;
594 [label="entropy = 0.0\nsamples = 220\nvalue = [0, 362]"] ;
564 -> 594 ;
595 [label="entropy = 0.0\nsamples = 120\nvalue = [200, 0]"] ;
563 -> 595 ;
596 [label="Feature_106 <= 3.5\nentropy = 0.8\nsamples = 989\nvalue = [1182, 385]"] ;
562 -> 596 ;
597 [label="Feature_137 <= 0.3\nentropy = 0.5\nsamples = 742\nvalue = [1019, 132]"] ;
596 -> 597 ;
598 [label="Feature_76 <= 1.7\nentropy = 0.9\nsamples = 94\nvalue = [40, 96]"] ;
597 -> 598 ;
599 [label="entropy = 0.0\nsamples = 66\nvalue = [0, 96]"] ;
598 -> 599 ;
600 [label="entropy = 0.0\nsamples = 28\nvalue = [40, 0]"] ;
598 -> 600 ;
601 [label="Feature_36 <= 1.9\nentropy = 0.2\nsamples = 648\nvalue = [979, 36]"] ;
597 -> 601 ;
602 [label="entropy = 0.0\nsamples = 513\nvalue = [802, 0]"] ;
601 -> 602 ;
603 [label="Feature_25 <= 1.9\nentropy = 0.7\nsamples = 135\nvalue = [177, 36]"] ;
601 -> 603 ;
604 [label="entropy = 0.0\nsamples = 24\nvalue = [0, 36]"] ;
603 -> 604 ;
605 [label="entropy = 0.0\nsamples = 111\nvalue = [177, 0]"] ;
603 -> 605 ;
606 [label="Feature_37 <= 6.3\nentropy = 1.0\nsamples = 247\nvalue = [163, 253]"] ;
596 -> 606 ;
607 [label="entropy = 0.0\nsamples = 151\nvalue = [0, 253]"] ;
606 -> 607 ;
608 [label="entropy = 0.0\nsamples = 96\nvalue = [163, 0]"] ;
606 -> 608 ;
}